{"metadata":{"generation":2,"fitness":7515,"distance":7515,"timeAlive":1503,"date":"27/04/2026 01:31:18","difficulty":"EASY","color":[124,182,151,150],"topology":{"hiddenLayers":1,"neuronsPerLayer":4,"activation":"relu"},"id":1777246278832},"weights":[[0.13677486777305603,0.5704601407051086,0.6755345463752747,-0.17743870615959167,0.5278019905090332,-0.18038225173950195,0.23849418759346008,0.20698532462120056,0.16375765204429626,0.18503119051456451,0.0951615571975708,-0.2413116842508316,0.5906230807304382,-0.34423282742500305,0.17482899129390717,-0.2514304518699646,-0.3790224492549896,0.17628775537014008,0.07355119287967682,-0.12241289019584656,-0.3857879638671875,0.4430319666862488,-0.6261992454528809,0.14805343747138977,0.4156227111816406,0.2560998499393463,-0.19092242419719696,0.23524488508701324,0.1541573405265808,-0.017624251544475555,0.4908473789691925,-0.16925540566444397,0.2525024712085724,0.37366506457328796,-0.4437425434589386,0.35069602727890015,0.15832190215587616,0.05331485718488693,-0.2359919399023056,0.5643185973167419],[0,0,0,0],[-0.1605817675590515,-0.10258582979440689,-0.04866832122206688,-0.35023772716522217,0.04996165260672569,-0.6974878311157227,-0.18287383019924164,-0.11821731179952621,-0.07999099045991898,-0.2320125848054886,0.42785322666168213,-0.8063043355941772],[0,0,0]]}