{"metadata":{"generation":233,"fitness":15345,"distance":15345,"timeAlive":3069,"date":"27/04/2026 00:14:22","difficulty":"MEDIUM","color":[169,140,231,150],"topology":{"hiddenLayers":1,"neuronsPerLayer":8,"activation":"relu"},"id":1777241662311},"weights":[[-1.6376029253005981,-5.016512870788574,0.2796579897403717,2.7591540813446045,2.908839225769043,-1.8764456510543823,-1.8622002601623535,0.24025464057922363,-3.010437250137329,1.5572376251220703,4.2186479568481445,-1.2176016569137573,-3.048384428024292,1.5070502758026123,4.151299953460693,0.14583313465118408,-2.098536968231201,0.7140475511550903,0.31055325269699097,-0.27106449007987976,-2.969982147216797,-0.9104442596435547,-0.6255167722702026,1.1366424560546875,-0.8737738132476807,-2.0728461742401123,0.9230381846427917,-3.7076315879821777,0.7334205508232117,0.10602640360593796,1.2797709703445435,-1.3596090078353882,-0.49024271965026855,2.192246437072754,-3.7395565509796143,-3.3619208335876465,3.885694742202759,0.6276330947875977,0.9693052172660828,-1.8543691635131836,4.987515449523926,-1.2948918342590332,-0.051959216594696045,1.844946265220642,0.9923878312110901,-5.289427757263184,-0.6526530385017395,3.1150805950164795,1.0620938539505005,-1.5185083150863647,-0.3668559491634369,-0.05729633569717407,3.4551589488983154,-0.7223041653633118,-0.432569295167923,-3.5083940029144287,2.850205421447754,-1.7214051485061646,-2.0759236812591553,3.9932000637054443,-0.30682069063186646,3.775331735610962,-4.288611888885498,3.6360645294189453,1.778803825378418,0.24699679017066956,-1.1586390733718872,0.043880805373191833,1.4339321851730347,-5.499398231506348,3.9700064659118652,-2.7093353271484375,-4.670720100402832,6.589982986450195,-2.819342851638794,0.7036617994308472,2.5762531757354736,-7.423922061920166,-1.4340468645095825,-0.439581036567688],[0.719600260257721,1.1182738542556763,-0.833394467830658,-2.282578229904175,1.9377621412277222,-3.8757224082946777,4.2715229988098145,-1.7822277545928955],[-0.4115096926689148,0.1334926038980484,-4.532188892364502,-1.1557074785232544,-2.048816680908203,2.276390552520752,1.293421983718872,-0.297853022813797,0.951179027557373,-1.640641689300537,4.349984645843506,-0.12807214260101318,-2.0614089965820312,-1.2595463991165161,-0.004594930913299322,-0.5393140912055969,1.0918591022491455,-1.439879059791565,-1.7654836177825928,0.7716787457466125,1.0732789039611816,2.114149570465088,0.2918289303779602,-1.73115074634552],[-6.4654669761657715,6.361996650695801,1.1160390377044678]]}