{"metadata":{"generation":10,"fitness":6640,"distance":6640,"timeAlive":1328,"date":"27/04/2026 00:04:05","difficulty":"MEDIUM","color":[223,103,206,150],"topology":{"hiddenLayers":1,"neuronsPerLayer":12,"activation":"relu"},"id":1777241045034},"weights":[[-0.3619195222854614,-0.32429078221321106,0.3563743829727173,-0.6396278142929077,-0.0470622181892395,0.21405255794525146,-0.14006419479846954,0.1058390662074089,0.3466801941394806,-0.9981799721717834,-0.18080684542655945,0.04511290043592453,1.0087538957595825,-0.4690815210342407,-0.05142359808087349,-0.7615236043930054,-0.2608160078525543,-0.48162415623664856,0.9153409600257874,-1.7148572206497192,0.43441179394721985,-0.15763099491596222,-0.18876922130584717,0.22437399625778198,-0.15544220805168152,-0.2617400586605072,-0.3783368468284607,0.1686372607946396,-0.7548989057540894,-0.28827762603759766,-0.16272388398647308,-0.8891355395317078,0.7812337875366211,-0.04998970776796341,0.5923875570297241,0.12057777494192123,-2.275878667831421,0.23398788273334503,-0.9899225234985352,-0.19334688782691956,-0.07562485337257385,-1.2338533401489258,-1.098620057106018,-1.0061219930648804,-1.4312347173690796,0.6232921481132507,-0.20535464584827423,-0.658527135848999,0.9612966775894165,-1.4683716297149658,0.6065117120742798,0.6950827836990356,0.5223397016525269,0.4792746603488922,-0.39310264587402344,-0.4698016345500946,-0.09524104744195938,0.04918471723794937,-0.3761543333530426,-0.35688093304634094,0.35953783988952637,0.09269001334905624,0.12228525429964066,1.0955188274383545,0.4265795946121216,-0.2527679204940796,0.05909228324890137,0.010390284471213818,0.526248574256897,-0.22276762127876282,-1.0190846920013428,0.14286063611507416,-0.4174567759037018,-2.2032363414764404,-0.14745499193668365,-0.048929911106824875,0.8970804214477539,-1.2634268999099731,-1.36775541305542,-1.457519292831421,0.2681936025619507,0.5889167189598083,-0.429933100938797,0.2920610308647156,1.0861233472824097,-0.3843770921230316,0.07742450386285782,-0.5097554326057434,0.5487087368965149,-0.14487819373607635,-0.053966205567121506,-0.029866846278309822,-0.42020443081855774,0.04694107919931412,1.0085598230361938,0.43048492074012756,0.13560661673545837,0.5542846322059631,-0.1862880289554596,1.0390830039978027,0.585091769695282,1.1679062843322754,-1.2020841836929321,-0.3537176251411438,0.09134729206562042,0.5348684787750244,-0.047937389463186264,0.5959234833717346,0.11642429977655411,-0.701023519039154,0.3762560188770294,0.08025122433900833,0.6075466275215149,-1.012803316116333,-0.13217392563819885,1.0423632860183716,1.293928861618042,0.8032253384590149,0.3599984347820282,-1.1669209003448486],[0,0.19098477065563202,-0.7295236587524414,0.520145833492279,0.037285689264535904,0.04000737518072128,0.009804780595004559,0,0.19466744363307953,-1.0061777830123901,-1.1885851621627808,-0.9873812198638916],[0.05299847945570946,-0.142152801156044,-0.39749643206596375,-0.6300899386405945,0.9371551275253296,-0.43010035157203674,-1.2121366262435913,0.1184663325548172,-0.010939497500658035,-0.09950966387987137,-0.13758589327335358,-0.2700329124927521,1.0537872314453125,0.3512152433395386,-0.6227031946182251,-0.5094612836837769,0.5852028131484985,-0.34462058544158936,-0.7271251678466797,-0.0683097317814827,0.1735389530658722,-0.3177866041660309,0.008695908822119236,0.7609135508537292,-0.11575771123170853,-0.22094279527664185,0.7715945839881897,-0.10893136262893677,-0.16702891886234283,0.7292429208755493,1.0903183221817017,-0.44679731130599976,0.02072117105126381,0.2972182035446167,-1.0560269355773926,0.42466026544570923],[0.5028178095817566,0.05542122572660446,-0.21719229221343994]]}