{"metadata":{"generation":1,"fitness":2325,"distance":2325,"timeAlive":465,"date":"27/04/2026 01:33:57","difficulty":"EASY","color":[146,236,230,150],"topology":{"hiddenLayers":1,"neuronsPerLayer":4,"activation":"relu"},"id":1777246437101},"weights":[[-0.5622063875198364,0.6056017875671387,0.6280722618103027,0.4098721146583557,-0.16721056401729584,-0.2258041799068451,0.3499782979488373,0.00161640509031713,0.014932483434677124,-0.5544367432594299,0.04253655672073364,0.07507302612066269,-0.11680510640144348,0.02181810699403286,-0.3800479471683502,-0.13627734780311584,0.399949848651886,-0.05868358910083771,0.20262612402439117,-0.27614033222198486,-0.17868131399154663,-0.2810722589492798,-0.12087990343570709,0.6202116012573242,-0.020614730194211006,-0.10597921907901764,-0.020915668457746506,0.04196929931640625,0.34360265731811523,0.04065297544002533,0.023389706388115883,0.34278568625450134,-0.2442203164100647,-0.0011192738311365247,-0.4967176914215088,0.33706721663475037,-0.10447003692388535,0.2822393476963043,0.24335262179374695,0.04435029253363609],[0,0,0,0],[0.7171626687049866,-0.645685613155365,0.5741471648216248,0.05799273028969765,0.11462278664112091,-0.6040912866592407,-0.8585312962532043,0.9076517224311829,-0.9441907405853271,0.6418396234512329,0.27372825145721436,0.3054336905479431],[0,0,0]]}