{"metadata":{"generation":29,"fitness":121345,"distance":121345,"timeAlive":24269,"date":"27/04/2026 00:06:24","difficulty":"MEDIUM","color":[204,104,253,150],"topology":{"hiddenLayers":1,"neuronsPerLayer":12,"activation":"relu"},"id":1777241184798},"weights":[[0.1134944036602974,-1.46969473361969,-1.5886471271514893,-0.2961820960044861,-0.751095175743103,-0.545241117477417,1.1315584182739258,0.7590458989143372,-0.7976446747779846,-0.7449803948402405,0.5694425106048584,1.7307229042053223,0.43478840589523315,-1.0342410802841187,0.24971111118793488,-1.3966493606567383,0.2105676233768463,-0.4649985134601593,-0.5735332369804382,-1.4746339321136475,-0.10987769812345505,-0.2811773419380188,-0.7470976114273071,0.6126901507377625,-0.06834597140550613,-2.3062644004821777,-0.35063987970352173,-1.031856656074524,-0.3911179006099701,0.48397302627563477,-0.6216537356376648,-0.41218942403793335,-0.20340365171432495,0.0751342847943306,0.9744426012039185,-2.585452079772949,-2.809598445892334,0.11387171596288681,-1.5080385208129883,0.8164281249046326,0.42924073338508606,-0.5208504796028137,-0.5021775364875793,-1.0061219930648804,0.03341038152575493,-0.5696271657943726,-0.32288187742233276,-0.3944230377674103,0.4396710991859436,-1.4683716297149658,0.6065117120742798,0.05704525485634804,-1.7419524192810059,0.5224925875663757,0.20527955889701843,1.0895707607269287,-0.08587862551212311,-0.22399631142616272,-0.18533682823181152,0.707007646560669,1.3633735179901123,1.6781349182128906,1.6212761402130127,-1.8179090023040771,0.7635248303413391,0.782122790813446,1.4731827974319458,-2.1855978965759277,1.2635639905929565,-0.4848554730415344,-0.5524828433990479,-1.6924560070037842,0.07474567741155624,-1.1401087045669556,0.08254784345626831,-0.7074138522148132,0.922452449798584,-0.25993648171424866,-1.6163140535354614,-3.3418099880218506,0.7315816283226013,0.5650042295455933,-0.7371626496315002,0.712884783744812,-1.4367436170578003,-0.3843770921230316,0.5543102025985718,-0.5592935681343079,-0.021381869912147522,-0.029671279713511467,-0.1325148046016693,-0.1607404351234436,0.8891718983650208,-0.8960241675376892,0.6923328042030334,-0.16852569580078125,0.20565997064113617,-1.5011439323425293,0.8349213004112244,2.330401659011841,-0.4822702705860138,-0.134272962808609,0.6436965465545654,-0.20160864293575287,-0.4791682958602905,0.7945601940155029,0.34783583879470825,-0.08386930823326111,-0.19542188942432404,-0.2736145257949829,-0.4217695891857147,-0.7615676522254944,0.2884228527545929,-0.22864088416099548,0.21094529330730438,2.043058156967163,0.06436599045991898,-1.4587064981460571,0.4438353478908539,0.5858412384986877],[-0.7590878009796143,-0.28004273772239685,-1.394543170928955,0.6928648352622986,-0.9825165867805481,-0.3619091510772705,0.5664927363395691,-0.22483199834823608,-1.2013894319534302,-0.22703967988491058,-0.7529410123825073,-1.7324436902999878],[-0.08888247609138489,1.0542349815368652,-0.7999163866043091,1.0606451034545898,3.5002143383026123,-1.1870943307876587,-0.598983108997345,-2.0718183517456055,-1.0672708749771118,0.2209349274635315,-1.02880859375,-1.0165729522705078,0.8906325697898865,0.39031046628952026,-0.8126932382583618,-1.4109255075454712,-0.9200053811073303,-0.4183174967765808,2.107248306274414,0.1162014901638031,0.18795476853847504,-1.4312344789505005,-0.34400397539138794,1.877974033355713,-0.01941709965467453,-0.5085171461105347,-1.3904030323028564,1.1977920532226562,-0.0758102685213089,-0.5000523924827576,0.575183093547821,0.7930183410644531,-0.689452052116394,0.8485710620880127,-1.665231466293335,-0.9023528695106506],[-0.3630526065826416,-0.40921029448509216,-0.21719229221343994]]}